<?xml version="1.0" encoding="UTF-8"?>
<BIF VERSION="0.3"  xmlns="http://www.cs.ubc.ca/labs/lci/fopi/ve/XMLBIFv0_3"
	xmlns:xsi="http://www.w3.org/2001/XMLSchema-instance"
	xsi:schemaLocation="http://www.cs.ubc.ca/labs/lci/fopi/ve/XMLBIFv0_3 http://www.cs.ubc.ca/labs/lci/fopi/ve/XMLBIFv0_3/XMLBIFv0_3.xsd">
<NETWORK>
<NAME>"Simplified Blackjack"</NAME>

<VARIABLE TYPE="nature">
	<NAME>Dealer card 1</NAME>
	<OUTCOME>1</OUTCOME>
	<OUTCOME>2</OUTCOME>
	<OUTCOME>3</OUTCOME>
	<OUTCOME>4</OUTCOME>
	<PROPERTY>position = (7148.7529296875, 5093.59033203125)</PROPERTY>
</VARIABLE>

<VARIABLE TYPE="nature">
	<NAME>Dealer card 2</NAME>
	<OUTCOME>1</OUTCOME>
	<OUTCOME>2</OUTCOME>
	<OUTCOME>3</OUTCOME>
	<OUTCOME>4</OUTCOME>
	<PROPERTY>position = (7304.25927734375, 5085.923828125)</PROPERTY>
</VARIABLE>

<VARIABLE TYPE="nature">
	<NAME>Your card 1</NAME>
	<OUTCOME>1</OUTCOME>
	<OUTCOME>2</OUTCOME>
	<OUTCOME>3</OUTCOME>
	<OUTCOME>4</OUTCOME>
	<PROPERTY>position = (7149.84716796875, 5352.0400390625)</PROPERTY>
</VARIABLE>

<VARIABLE TYPE="nature">
	<NAME>Your card 2</NAME>
	<OUTCOME>1</OUTCOME>
	<OUTCOME>2</OUTCOME>
	<OUTCOME>3</OUTCOME>
	<OUTCOME>4</OUTCOME>
	<PROPERTY>position = (7291.11865234375, 5349.84912109375)</PROPERTY>
</VARIABLE>

<VARIABLE TYPE="nature">
	<NAME>Your card 3</NAME>
	<OUTCOME>1</OUTCOME>
	<OUTCOME>2</OUTCOME>
	<OUTCOME>3</OUTCOME>
	<OUTCOME>4</OUTCOME>
	<PROPERTY>position = (7444.43505859375, 5350.94482421875)</PROPERTY>
</VARIABLE>

<VARIABLE TYPE="decision">
	<NAME>Hit once</NAME>
	<OUTCOME>T</OUTCOME>
	<OUTCOME>F</OUTCOME>
	<PROPERTY>position = (7437.86572265625, 5456.07666015625)</PROPERTY>
</VARIABLE>

<VARIABLE TYPE="nature">
	<NAME>Dealer total</NAME>
	<OUTCOME>2</OUTCOME>
	<OUTCOME>3</OUTCOME>
	<OUTCOME>4</OUTCOME>
	<OUTCOME>5</OUTCOME>
	<OUTCOME>bust</OUTCOME>
	<PROPERTY>position = (7603.22802734375, 5189.96142578125)</PROPERTY>
</VARIABLE>

<VARIABLE TYPE="nature">
	<NAME>Win</NAME>
	<OUTCOME>T</OUTCOME>
	<OUTCOME>F</OUTCOME>
	<PROPERTY>position = (7728.07275390625, 5275.380859375)</PROPERTY>
</VARIABLE>

<VARIABLE TYPE="nature">
	<NAME>Running total</NAME>
	<OUTCOME>2</OUTCOME>
	<OUTCOME>3</OUTCOME>
	<OUTCOME>4</OUTCOME>
	<OUTCOME>5</OUTCOME>
	<OUTCOME>bust</OUTCOME>
	<PROPERTY>position = (7449.91162109375, 5267.7138671875)</PROPERTY>
</VARIABLE>

<VARIABLE TYPE="nature">
	<NAME>Your total</NAME>
	<OUTCOME>2</OUTCOME>
	<OUTCOME>3</OUTCOME>
	<OUTCOME>4</OUTCOME>
	<OUTCOME>5</OUTCOME>
	<OUTCOME>bust</OUTCOME>
	<PROPERTY>position = (7605.41943359375, 5355.32421875)</PROPERTY>
</VARIABLE>

<VARIABLE TYPE="utility">
	<NAME>Utility</NAME>
	<PROPERTY>position = (7868.24755859375, 5275.380859375)</PROPERTY>
</VARIABLE>

<DEFINITION>
	<FOR>Dealer card 1</FOR>
	<TABLE>0.25 0.25 0.25 0.25</TABLE>
</DEFINITION>

<DEFINITION>
	<FOR>Dealer card 2</FOR>
	<TABLE>0.25 0.25 0.25 0.25</TABLE>
</DEFINITION>

<DEFINITION>
	<FOR>Your card 1</FOR>
	<TABLE>0.25 0.25 0.25 0.25</TABLE>
</DEFINITION>

<DEFINITION>
	<FOR>Your card 2</FOR>
	<TABLE>0.25 0.25 0.25 0.25</TABLE>
</DEFINITION>

<DEFINITION>
	<FOR>Your card 3</FOR>
	<TABLE>0.25 0.25 0.25 0.25</TABLE>
</DEFINITION>

<DEFINITION>
	<FOR>Dealer total</FOR>
	<GIVEN>Dealer card 1</GIVEN>
	<GIVEN>Dealer card 2</GIVEN>
	<TABLE>1.0 0.0 0.0 0.0 0.0 0.0 1.0 0.0 0.0 0.0 0.0 0.0 1.0 0.0 0.0 0.0 0.0 0.0 1.0 0.0 0.0 1.0 0.0 0.0 0.0 0.0 0.0 1.0 0.0 0.0 0.0 0.0 0.0 1.0 0.0 0.0 0.0 0.0 0.0 1.0 0.0 0.0 1.0 0.0 0.0 0.0 0.0 0.0 1.0 0.0 0.0 0.0 0.0 0.0 1.0 0.0 0.0 0.0 0.0 1.0 0.0 0.0 0.0 1.0 0.0 0.0 0.0 0.0 0.0 1.0 0.0 0.0 0.0 0.0 1.0 0.0 0.0 0.0 0.0 1.0</TABLE>
</DEFINITION>

<DEFINITION>
	<FOR>Win</FOR>
	<GIVEN>Dealer total</GIVEN>
	<GIVEN>Your total</GIVEN>
	<TABLE>0.0 1.0 1.0 0.0 1.0 0.0 1.0 0.0 0.0 1.0 0.0 1.0 0.0 1.0 1.0 0.0 1.0 0.0 0.0 1.0 0.0 1.0 0.0 1.0 0.0 1.0 1.0 0.0 0.0 1.0 0.0 1.0 0.0 1.0 0.0 1.0 0.0 1.0 0.0 1.0 1.0 0.0 1.0 0.0 1.0 0.0 1.0 0.0 0.0 1.0</TABLE>
</DEFINITION>

<DEFINITION>
	<FOR>Running total</FOR>
	<GIVEN>Your card 1</GIVEN>
	<GIVEN>Your card 2</GIVEN>
	<TABLE>1.0 0.0 0.0 0.0 0.0 0.0 1.0 0.0 0.0 0.0 0.0 0.0 1.0 0.0 0.0 0.0 0.0 0.0 1.0 0.0 0.0 1.0 0.0 0.0 0.0 0.0 0.0 1.0 0.0 0.0 0.0 0.0 0.0 1.0 0.0 0.0 0.0 0.0 0.0 1.0 0.0 0.0 1.0 0.0 0.0 0.0 0.0 0.0 1.0 0.0 0.0 0.0 0.0 0.0 1.0 0.0 0.0 0.0 0.0 1.0 0.0 0.0 0.0 1.0 0.0 0.0 0.0 0.0 0.0 1.0 0.0 0.0 0.0 0.0 1.0 0.0 0.0 0.0 0.0 1.0</TABLE>
</DEFINITION>

<DEFINITION>
	<FOR>Your total</FOR>
	<GIVEN>Your card 3</GIVEN>
	<GIVEN>Hit once</GIVEN>
	<GIVEN>Running total</GIVEN>
	<TABLE>0.0 1.0 0.0 0.0 0.0 0.0 0.0 1.0 0.0 0.0 0.0 0.0 0.0 1.0 0.0 0.0 0.0 0.0 0.0 1.0 0.0 0.0 0.0 0.0 1.0 1.0 0.0 0.0 0.0 0.0 0.0 1.0 0.0 0.0 0.0 0.0 0.0 1.0 0.0 0.0 0.0 0.0 0.0 1.0 0.0 0.0 0.0 0.0 0.0 1.0 0.0 0.0 1.0 0.0 0.0 0.0 0.0 0.0 1.0 0.0 0.0 0.0 0.0 0.0 1.0 0.0 0.0 0.0 0.0 1.0 0.0 0.0 0.0 0.0 1.0 1.0 0.0 0.0 0.0 0.0 0.0 1.0 0.0 0.0 0.0 0.0 0.0 1.0 0.0 0.0 0.0 0.0 0.0 1.0 0.0 0.0 0.0 0.0 0.0 1.0 0.0 0.0 0.0 1.0 0.0 0.0 0.0 0.0 0.0 1.0 0.0 0.0 0.0 0.0 1.0 0.0 0.0 0.0 0.0 1.0 0.0 0.0 0.0 0.0 1.0 1.0 0.0 0.0 0.0 0.0 0.0 1.0 0.0 0.0 0.0 0.0 0.0 1.0 0.0 0.0 0.0 0.0 0.0 1.0 0.0 0.0 0.0 0.0 0.0 1.0 0.0 0.0 0.0 0.0 1.0 0.0 0.0 0.0 0.0 1.0 0.0 0.0 0.0 0.0 1.0 0.0 0.0 0.0 0.0 1.0 0.0 0.0 0.0 0.0 1.0 1.0 0.0 0.0 0.0 0.0 0.0 1.0 0.0 0.0 0.0 0.0 0.0 1.0 0.0 0.0 0.0 0.0 0.0 1.0 0.0 0.0 0.0 0.0 0.0 1.0</TABLE>
</DEFINITION>

<DEFINITION>
	<FOR>Hit once</FOR>
	<GIVEN>Your card 1</GIVEN>
	<GIVEN>Your card 2</GIVEN>
</DEFINITION>

<DEFINITION>
	<FOR>Utility</FOR>
	<GIVEN>Win</GIVEN>
	<TABLE>1.0 -1.0</TABLE>
</DEFINITION>
</NETWORK>
</BIF>
